digraph Tree {
node [shape=box, style="filled, rounded", color="black", fontname="helvetica"] ;
edge [fontname="helvetica"] ;
0 [label="x[0] <= 2.025\nsquared_error = 283.633\nsamples = 240\nvalue = 9.095", fillcolor="#f8dbc6"] ;
1 [label="x[0] <= -2.078\nsquared_error = 123.036\nsamples = 213\nvalue = 4.754", fillcolor="#f9e1d0"] ;
0 -> 1 [labeldistance=2.5, labelangle=45, headlabel="True"] ;
2 [label="x[0] <= -2.348\nsquared_error = 37.338\nsamples = 22\nvalue = 18.397", fillcolor="#f5cdb1"] ;
1 -> 2 ;
3 [label="x[0] <= -2.361\nsquared_error = 36.578\nsamples = 11\nvalue = 20.908", fillcolor="#f4caab"] ;
2 -> 3 ;
4 [label="x[0] <= -2.375\nsquared_error = 28.289\nsamples = 10\nvalue = 19.866", fillcolor="#f4cbae"] ;
3 -> 4 ;
5 [label="x[0] <= -2.468\nsquared_error = 20.708\nsamples = 9\nvalue = 20.901", fillcolor="#f4caab"] ;
4 -> 5 ;
6 [label="x[0] <= -2.478\nsquared_error = 9.207\nsamples = 3\nvalue = 18.517", fillcolor="#f5cdb1"] ;
5 -> 6 ;
7 [label="squared_error = 0.658\nsamples = 2\nvalue = 20.611", fillcolor="#f4caac"] ;
6 -> 7 ;
8 [label="squared_error = 0.0\nsamples = 1\nvalue = 14.329", fillcolor="#f6d3ba"] ;
6 -> 8 ;
9 [label="x[0] <= -2.403\nsquared_error = 22.195\nsamples = 6\nvalue = 22.094", fillcolor="#f4c8a8"] ;
5 -> 9 ;
10 [label="squared_error = 29.263\nsamples = 3\nvalue = 24.498", fillcolor="#f3c4a3"] ;
9 -> 10 ;
11 [label="squared_error = 3.567\nsamples = 3\nvalue = 19.69", fillcolor="#f4cbae"] ;
9 -> 11 ;
12 [label="squared_error = -0.0\nsamples = 1\nvalue = 10.546", fillcolor="#f7d9c3"] ;
4 -> 12 ;
13 [label="squared_error = 0.0\nsamples = 1\nvalue = 31.33", fillcolor="#f1bb93"] ;
3 -> 13 ;
14 [label="x[0] <= -2.23\nsquared_error = 25.489\nsamples = 11\nvalue = 15.887", fillcolor="#f5d1b7"] ;
2 -> 14 ;
15 [label="x[0] <= -2.284\nsquared_error = 23.694\nsamples = 8\nvalue = 14.128", fillcolor="#f6d3bb"] ;
14 -> 15 ;
16 [label="x[0] <= -2.292\nsquared_error = 6.941\nsamples = 5\nvalue = 16.6", fillcolor="#f5d0b5"] ;
15 -> 16 ;
17 [label="x[0] <= -2.336\nsquared_error = 0.498\nsamples = 4\nvalue = 15.321", fillcolor="#f6d2b8"] ;
16 -> 17 ;
18 [label="squared_error = 0.0\nsamples = 1\nvalue = 16.322", fillcolor="#f5d0b6"] ;
17 -> 18 ;
19 [label="squared_error = 0.218\nsamples = 3\nvalue = 14.987", fillcolor="#f6d2b9"] ;
17 -> 19 ;
20 [label="squared_error = 0.0\nsamples = 1\nvalue = 21.716", fillcolor="#f4c8a9"] ;
16 -> 20 ;
21 [label="x[0] <= -2.245\nsquared_error = 24.457\nsamples = 3\nvalue = 10.008", fillcolor="#f7d9c4"] ;
15 -> 21 ;
22 [label="x[0] <= -2.265\nsquared_error = 16.982\nsamples = 2\nvalue = 7.446", fillcolor="#f8ddca"] ;
21 -> 22 ;
23 [label="squared_error = 0.0\nsamples = 1\nvalue = 11.567", fillcolor="#f7d7c0"] ;
22 -> 23 ;
24 [label="squared_error = 0.0\nsamples = 1\nvalue = 3.325", fillcolor="#f9e3d3"] ;
22 -> 24 ;
25 [label="squared_error = 0.0\nsamples = 1\nvalue = 15.134", fillcolor="#f6d2b8"] ;
21 -> 25 ;
26 [label="x[0] <= -2.199\nsquared_error = 0.048\nsamples = 3\nvalue = 20.575", fillcolor="#f4caac"] ;
14 -> 26 ;
27 [label="squared_error = 0.0\nsamples = 1\nvalue = 20.295", fillcolor="#f4cbad"] ;
26 -> 27 ;
28 [label="x[0] <= -2.145\nsquared_error = 0.014\nsamples = 2\nvalue = 20.716", fillcolor="#f4caac"] ;
26 -> 28 ;
29 [label="squared_error = 0.0\nsamples = 1\nvalue = 20.832", fillcolor="#f4caab"] ;
28 -> 29 ;
30 [label="squared_error = 0.0\nsamples = 1\nvalue = 20.599", fillcolor="#f4caac"] ;
28 -> 30 ;
31 [label="x[0] <= 1.539\nsquared_error = 108.996\nsamples = 191\nvalue = 3.182", fillcolor="#f9e3d3"] ;
1 -> 31 ;
32 [label="x[0] <= -0.866\nsquared_error = 89.035\nsamples = 159\nvalue = 0.972", fillcolor="#fae6d8"] ;
31 -> 32 ;
33 [label="x[0] <= -1.979\nsquared_error = 74.197\nsamples = 51\nvalue = 6.614", fillcolor="#f8decc"] ;
32 -> 33 ;
34 [label="x[0] <= -2.016\nsquared_error = 7.097\nsamples = 2\nvalue = -1.294", fillcolor="#fbeade"] ;
33 -> 34 ;
35 [label="squared_error = 0.0\nsamples = 1\nvalue = -3.958", fillcolor="#fbeee4"] ;
34 -> 35 ;
36 [label="squared_error = 0.0\nsamples = 1\nvalue = 1.37", fillcolor="#fae6d7"] ;
34 -> 36 ;
37 [label="x[0] <= -0.951\nsquared_error = 74.279\nsamples = 49\nvalue = 6.937", fillcolor="#f8decb"] ;
33 -> 37 ;
38 [label="x[0] <= -1.34\nsquared_error = 64.403\nsamples = 42\nvalue = 7.514", fillcolor="#f8ddca"] ;
37 -> 38 ;
39 [label="squared_error = 68.457\nsamples = 35\nvalue = 6.7", fillcolor="#f8decb"] ;
38 -> 39 ;
40 [label="squared_error = 24.291\nsamples = 7\nvalue = 11.58", fillcolor="#f7d7c0"] ;
38 -> 40 ;
41 [label="x[0] <= -0.936\nsquared_error = 119.566\nsamples = 7\nvalue = 3.477", fillcolor="#f9e3d3"] ;
37 -> 41 ;
42 [label="squared_error = 36.975\nsamples = 2\nvalue = -8.59", fillcolor="#fdf4ee"] ;
41 -> 42 ;
43 [label="squared_error = 71.057\nsamples = 5\nvalue = 8.304", fillcolor="#f8dcc8"] ;
41 -> 43 ;
44 [label="x[0] <= 1.294\nsquared_error = 73.908\nsamples = 108\nvalue = -1.693", fillcolor="#fbeade"] ;
32 -> 44 ;
45 [label="x[0] <= 1.068\nsquared_error = 72.032\nsamples = 96\nvalue = -2.534", fillcolor="#fbebe0"] ;
44 -> 45 ;
46 [label="x[0] <= 0.396\nsquared_error = 71.193\nsamples = 92\nvalue = -2.156", fillcolor="#fbebdf"] ;
45 -> 46 ;
47 [label="squared_error = 73.58\nsamples = 55\nvalue = -1.157", fillcolor="#fbe9dd"] ;
46 -> 47 ;
48 [label="squared_error = 63.951\nsamples = 37\nvalue = -3.642", fillcolor="#fbede3"] ;
46 -> 48 ;
49 [label="x[0] <= 1.07\nsquared_error = 12.468\nsamples = 4\nvalue = -11.228", fillcolor="#fef8f4"] ;
45 -> 49 ;
50 [label="squared_error = 0.0\nsamples = 1\nvalue = -16.057", fillcolor="#ffffff"] ;
49 -> 50 ;
51 [label="squared_error = 6.258\nsamples = 3\nvalue = -9.618", fillcolor="#fdf6f0"] ;
49 -> 51 ;
52 [label="x[0] <= 1.359\nsquared_error = 37.936\nsamples = 12\nvalue = 5.039", fillcolor="#f9e1cf"] ;
44 -> 52 ;
53 [label="x[0] <= 1.329\nsquared_error = 0.034\nsamples = 2\nvalue = 12.726", fillcolor="#f6d5be"] ;
52 -> 53 ;
54 [label="squared_error = 0.0\nsamples = 1\nvalue = 12.542", fillcolor="#f6d6be"] ;
53 -> 54 ;
55 [label="squared_error = 0.0\nsamples = 1\nvalue = 12.911", fillcolor="#f6d5bd"] ;
53 -> 55 ;
56 [label="x[0] <= 1.51\nsquared_error = 31.333\nsamples = 10\nvalue = 3.501", fillcolor="#f9e3d3"] ;
52 -> 56 ;
57 [label="squared_error = 27.861\nsamples = 9\nvalue = 4.335", fillcolor="#f9e2d1"] ;
56 -> 57 ;
58 [label="squared_error = -0.0\nsamples = 1\nvalue = -4.004", fillcolor="#fbeee4"] ;
56 -> 58 ;
59 [label="x[0] <= 1.791\nsquared_error = 63.259\nsamples = 32\nvalue = 14.166", fillcolor="#f6d3ba"] ;
31 -> 59 ;
60 [label="x[0] <= 1.628\nsquared_error = 48.723\nsamples = 18\nvalue = 11.551", fillcolor="#f7d7c0"] ;
59 -> 60 ;
61 [label="x[0] <= 1.618\nsquared_error = 43.222\nsamples = 9\nvalue = 9.537", fillcolor="#f7dac5"] ;
60 -> 61 ;
62 [label="x[0] <= 1.549\nsquared_error = 27.583\nsamples = 8\nvalue = 11.066", fillcolor="#f7d8c1"] ;
61 -> 62 ;
63 [label="squared_error = 0.0\nsamples = 1\nvalue = 19.094", fillcolor="#f5ccaf"] ;
62 -> 63 ;
64 [label="squared_error = 20.999\nsamples = 7\nvalue = 9.919", fillcolor="#f7d9c4"] ;
62 -> 64 ;
65 [label="squared_error = 0.0\nsamples = 1\nvalue = -2.696", fillcolor="#fbece1"] ;
61 -> 65 ;
66 [label="x[0] <= 1.724\nsquared_error = 46.111\nsamples = 9\nvalue = 13.565", fillcolor="#f6d4bc"] ;
60 -> 66 ;
67 [label="x[0] <= 1.704\nsquared_error = 27.783\nsamples = 4\nvalue = 19.534", fillcolor="#f4ccae"] ;
66 -> 67 ;
68 [label="squared_error = 4.644\nsamples = 2\nvalue = 14.569", fillcolor="#f6d3ba"] ;
67 -> 68 ;
69 [label="squared_error = 1.625\nsamples = 2\nvalue = 24.499", fillcolor="#f3c4a3"] ;
67 -> 69 ;
70 [label="x[0] <= 1.73\nsquared_error = 9.467\nsamples = 5\nvalue = 8.789", fillcolor="#f8dbc7"] ;
66 -> 70 ;
71 [label="squared_error = 0.0\nsamples = 1\nvalue = 4.99", fillcolor="#f9e1cf"] ;
70 -> 71 ;
72 [label="squared_error = 7.323\nsamples = 4\nvalue = 9.739", fillcolor="#f7dac4"] ;
70 -> 72 ;
73 [label="x[0] <= 1.875\nsquared_error = 61.849\nsamples = 14\nvalue = 17.528", fillcolor="#f5cfb3"] ;
59 -> 73 ;
74 [label="x[0] <= 1.841\nsquared_error = 81.759\nsamples = 8\nvalue = 19.792", fillcolor="#f4cbae"] ;
73 -> 74 ;
75 [label="x[0] <= 1.83\nsquared_error = 85.015\nsamples = 6\nvalue = 17.539", fillcolor="#f5ceb3"] ;
74 -> 75 ;
76 [label="squared_error = 79.536\nsamples = 5\nvalue = 19.475", fillcolor="#f4ccae"] ;
75 -> 76 ;
77 [label="squared_error = 0.0\nsamples = 1\nvalue = 7.861", fillcolor="#f8dcc9"] ;
75 -> 77 ;
78 [label="x[0] <= 1.857\nsquared_error = 11.103\nsamples = 2\nvalue = 26.549", fillcolor="#f2c19e"] ;
74 -> 78 ;
79 [label="squared_error = 0.0\nsamples = 1\nvalue = 23.217", fillcolor="#f3c6a6"] ;
78 -> 79 ;
80 [label="squared_error = 0.0\nsamples = 1\nvalue = 29.882", fillcolor="#f1bd97"] ;
78 -> 80 ;
81 [label="x[0] <= 1.92\nsquared_error = 19.359\nsamples = 6\nvalue = 14.51", fillcolor="#f6d3ba"] ;
73 -> 81 ;
82 [label="x[0] <= 1.88\nsquared_error = 1.334\nsamples = 2\nvalue = 9.571", fillcolor="#f7dac5"] ;
81 -> 82 ;
83 [label="squared_error = 0.0\nsamples = 1\nvalue = 10.726", fillcolor="#f7d8c2"] ;
82 -> 83 ;
84 [label="squared_error = 0.0\nsamples = 1\nvalue = 8.416", fillcolor="#f8dcc7"] ;
82 -> 84 ;
85 [label="x[0] <= 1.965\nsquared_error = 10.075\nsamples = 4\nvalue = 16.979", fillcolor="#f5cfb4"] ;
81 -> 85 ;
86 [label="squared_error = 0.0\nsamples = 1\nvalue = 13.952", fillcolor="#f6d4bb"] ;
85 -> 86 ;
87 [label="squared_error = 9.359\nsamples = 3\nvalue = 17.989", fillcolor="#f5ceb2"] ;
85 -> 87 ;
88 [label="x[0] <= 2.291\nsquared_error = 228.726\nsamples = 27\nvalue = 43.346", fillcolor="#eda978"] ;
0 -> 88 [labeldistance=2.5, labelangle=-45, headlabel="False"] ;
89 [label="x[0] <= 2.122\nsquared_error = 65.491\nsamples = 13\nvalue = 30.707", fillcolor="#f1bb95"] ;
88 -> 89 ;
90 [label="x[0] <= 2.046\nsquared_error = 39.613\nsamples = 7\nvalue = 27.315", fillcolor="#f2c09d"] ;
89 -> 90 ;
91 [label="squared_error = 0.0\nsamples = 1\nvalue = 33.816", fillcolor="#f0b78e"] ;
90 -> 91 ;
92 [label="x[0] <= 2.062\nsquared_error = 37.996\nsamples = 6\nvalue = 26.231", fillcolor="#f2c29f"] ;
90 -> 92 ;
93 [label="x[0] <= 2.053\nsquared_error = 9.454\nsamples = 2\nvalue = 21.22", fillcolor="#f4c9aa"] ;
92 -> 93 ;
94 [label="squared_error = 0.0\nsamples = 1\nvalue = 24.295", fillcolor="#f3c5a3"] ;
93 -> 94 ;
95 [label="squared_error = 0.0\nsamples = 1\nvalue = 18.145", fillcolor="#f5ceb1"] ;
93 -> 95 ;
96 [label="x[0] <= 2.072\nsquared_error = 33.431\nsamples = 4\nvalue = 28.737", fillcolor="#f2be99"] ;
92 -> 96 ;
97 [label="squared_error = 0.0\nsamples = 1\nvalue = 36.877", fillcolor="#efb387"] ;
96 -> 97 ;
98 [label="x[0] <= 2.092\nsquared_error = 15.13\nsamples = 3\nvalue = 26.024", fillcolor="#f2c2a0"] ;
96 -> 98 ;
99 [label="squared_error = 0.0\nsamples = 1\nvalue = 20.97", fillcolor="#f4caab"] ;
98 -> 99 ;
100 [label="squared_error = 3.54\nsamples = 2\nvalue = 28.551", fillcolor="#f2bf9a"] ;
98 -> 100 ;
101 [label="x[0] <= 2.257\nsquared_error = 66.599\nsamples = 6\nvalue = 34.664", fillcolor="#f0b68c"] ;
89 -> 101 ;
102 [label="x[0] <= 2.2\nsquared_error = 69.748\nsamples = 5\nvalue = 35.966", fillcolor="#f0b489"] ;
101 -> 102 ;
103 [label="x[0] <= 2.164\nsquared_error = 32.018\nsamples = 4\nvalue = 32.645", fillcolor="#f0b991"] ;
102 -> 103 ;
104 [label="x[0] <= 2.134\nsquared_error = 6.681\nsamples = 3\nvalue = 35.645", fillcolor="#f0b48a"] ;
103 -> 104 ;
105 [label="squared_error = 0.0\nsamples = 1\nvalue = 33.514", fillcolor="#f0b78f"] ;
104 -> 105 ;
106 [label="squared_error = 6.616\nsamples = 2\nvalue = 36.711", fillcolor="#efb387"] ;
104 -> 106 ;
107 [label="squared_error = -0.0\nsamples = 1\nvalue = 23.644", fillcolor="#f3c6a5"] ;
103 -> 107 ;
108 [label="squared_error = 0.0\nsamples = 1\nvalue = 49.253", fillcolor="#eca16b"] ;
102 -> 108 ;
109 [label="squared_error = -0.0\nsamples = 1\nvalue = 28.155", fillcolor="#f2bf9b"] ;
101 -> 109 ;
110 [label="x[0] <= 2.451\nsquared_error = 94.215\nsamples = 14\nvalue = 55.083", fillcolor="#ea985e"] ;
88 -> 110 ;
111 [label="x[0] <= 2.345\nsquared_error = 60.69\nsamples = 9\nvalue = 50.468", fillcolor="#eb9f68"] ;
110 -> 111 ;
112 [label="x[0] <= 2.317\nsquared_error = 38.174\nsamples = 3\nvalue = 45.172", fillcolor="#eda774"] ;
111 -> 112 ;
113 [label="x[0] <= 2.303\nsquared_error = 0.005\nsamples = 2\nvalue = 49.541", fillcolor="#eba06a"] ;
112 -> 113 ;
114 [label="squared_error = 0.0\nsamples = 1\nvalue = 49.609", fillcolor="#eba06a"] ;
113 -> 114 ;
115 [label="squared_error = 0.0\nsamples = 1\nvalue = 49.472", fillcolor="#eba06a"] ;
113 -> 115 ;
116 [label="squared_error = 0.0\nsamples = 1\nvalue = 36.435", fillcolor="#efb388"] ;
112 -> 116 ;
117 [label="x[0] <= 2.42\nsquared_error = 50.914\nsamples = 6\nvalue = 53.116", fillcolor="#ea9b62"] ;
111 -> 117 ;
118 [label="x[0] <= 2.391\nsquared_error = 4.96\nsamples = 2\nvalue = 60.773", fillcolor="#e89051"] ;
117 -> 118 ;
119 [label="squared_error = 0.0\nsamples = 1\nvalue = 58.546", fillcolor="#e99356"] ;
118 -> 119 ;
120 [label="squared_error = -0.0\nsamples = 1\nvalue = 63.001", fillcolor="#e78d4c"] ;
118 -> 120 ;
121 [label="x[0] <= 2.443\nsquared_error = 29.91\nsamples = 4\nvalue = 49.287", fillcolor="#eca16b"] ;
117 -> 121 ;
122 [label="x[0] <= 2.431\nsquared_error = 11.484\nsamples = 3\nvalue = 51.951", fillcolor="#eb9d65"] ;
121 -> 122 ;
123 [label="squared_error = 0.0\nsamples = 1\nvalue = 47.334", fillcolor="#eca36f"] ;
122 -> 123 ;
124 [label="squared_error = 1.24\nsamples = 2\nvalue = 54.26", fillcolor="#ea995f"] ;
122 -> 124 ;
125 [label="squared_error = 0.0\nsamples = 1\nvalue = 41.294", fillcolor="#eeac7d"] ;
121 -> 125 ;
126 [label="x[0] <= 2.475\nsquared_error = 47.214\nsamples = 5\nvalue = 63.39", fillcolor="#e78c4b"] ;
110 -> 126 ;
127 [label="x[0] <= 2.464\nsquared_error = 5.497\nsamples = 2\nvalue = 68.872", fillcolor="#e6843e"] ;
126 -> 127 ;
128 [label="squared_error = 0.0\nsamples = 1\nvalue = 71.216", fillcolor="#e58139"] ;
127 -> 128 ;
129 [label="squared_error = 0.0\nsamples = 1\nvalue = 66.527", fillcolor="#e68844"] ;
127 -> 129 ;
130 [label="x[0] <= 2.491\nsquared_error = 41.634\nsamples = 3\nvalue = 59.735", fillcolor="#e89253"] ;
126 -> 130 ;
131 [label="x[0] <= 2.484\nsquared_error = 0.251\nsamples = 2\nvalue = 55.182", fillcolor="#ea985d"] ;
130 -> 131 ;
132 [label="squared_error = 0.0\nsamples = 1\nvalue = 55.682", fillcolor="#ea975c"] ;
131 -> 132 ;
133 [label="squared_error = 0.0\nsamples = 1\nvalue = 54.681", fillcolor="#ea995f"] ;
131 -> 133 ;
134 [label="squared_error = 0.0\nsamples = 1\nvalue = 68.842", fillcolor="#e6843e"] ;
130 -> 134 ;
}